digraph Tree {
node [shape=box] ;
0 [label="X[32] <= 0.5\nentropy = 1.533\nsamples = 9073\nvalue = [2309, 4188, 2576]"] ;
1 [label="X[6] <= 0.5\nentropy = 1.499\nsamples = 7307\nvalue = [1904, 3656, 1747]"] ;
0 -> 1 [labeldistance=2.5, labelangle=45, headlabel="True"] ;
2 [label="X[20] <= 0.5\nentropy = 1.543\nsamples = 5767\nvalue = [1612, 2589, 1566]"] ;
1 -> 2 ;
3 [label="X[45] <= 0.5\nentropy = 1.563\nsamples = 4874\nvalue = [1408, 2028, 1438]"] ;
2 -> 3 ;
4 [label="X[19] <= 0.5\nentropy = 1.539\nsamples = 3671\nvalue = [1101, 1655, 915]"] ;
3 -> 4 ;
5 [label="X[46] <= 0.5\nentropy = 1.572\nsamples = 2497\nvalue = [808, 981, 708]"] ;
4 -> 5 ;
6 [label="entropy = 1.56\nsamples = 2227\nvalue = [734, 916, 577]"] ;
5 -> 6 ;
7 [label="entropy = 1.513\nsamples = 270\nvalue = [74, 65, 131]"] ;
5 -> 7 ;
8 [label="X[51] <= 0.5\nentropy = 1.401\nsamples = 1174\nvalue = [293, 674, 207]"] ;
4 -> 8 ;
9 [label="entropy = 1.361\nsamples = 1088\nvalue = [267, 650, 171]"] ;
8 -> 9 ;
10 [label="entropy = 1.562\nsamples = 86\nvalue = [26, 24, 36]"] ;
8 -> 10 ;
11 [label="X[19] <= 0.5\nentropy = 1.549\nsamples = 1203\nvalue = [307, 373, 523]"] ;
3 -> 11 ;
12 [label="X[51] <= 0.5\nentropy = 1.511\nsamples = 814\nvalue = [201, 216, 397]"] ;
11 -> 12 ;
13 [label="entropy = 1.528\nsamples = 747\nvalue = [185, 213, 349]"] ;
12 -> 13 ;
14 [label="entropy = 1.039\nsamples = 67\nvalue = [16, 3, 48]"] ;
12 -> 14 ;
15 [label="X[29] <= 5.5\nentropy = 1.566\nsamples = 389\nvalue = [106, 157, 126]"] ;
11 -> 15 ;
16 [label="entropy = 1.571\nsamples = 379\nvalue = [105, 148, 126]"] ;
15 -> 16 ;
17 [label="entropy = 0.469\nsamples = 10\nvalue = [1, 9, 0]"] ;
15 -> 17 ;
18 [label="X[25] <= 0.5\nentropy = 1.31\nsamples = 893\nvalue = [204, 561, 128]"] ;
2 -> 18 ;
19 [label="X[3] <= 1.5\nentropy = 1.349\nsamples = 826\nvalue = [201, 499, 126]"] ;
18 -> 19 ;
20 [label="X[9] <= 8.5\nentropy = 1.11\nsamples = 303\nvalue = [46, 221, 36]"] ;
19 -> 20 ;
21 [label="entropy = 1.163\nsamples = 276\nvalue = [46, 195, 35]"] ;
20 -> 21 ;
22 [label="entropy = 0.229\nsamples = 27\nvalue = [0, 26, 1]"] ;
20 -> 22 ;
23 [label="X[35] <= 2.5\nentropy = 1.442\nsamples = 523\nvalue = [155, 278, 90]"] ;
19 -> 23 ;
24 [label="entropy = 1.327\nsamples = 226\nvalue = [78, 126, 22]"] ;
23 -> 24 ;
25 [label="entropy = 1.486\nsamples = 297\nvalue = [77, 152, 68]"] ;
23 -> 25 ;
26 [label="X[40] <= 0.5\nentropy = 0.455\nsamples = 67\nvalue = [3, 62, 2]"] ;
18 -> 26 ;
27 [label="X[26] <= 20.5\nentropy = 0.297\nsamples = 57\nvalue = [3, 54, 0]"] ;
26 -> 27 ;
28 [label="entropy = 0.131\nsamples = 55\nvalue = [1, 54, 0]"] ;
27 -> 28 ;
29 [label="entropy = 0.0\nsamples = 2\nvalue = [2, 0, 0]"] ;
27 -> 29 ;
30 [label="X[39] <= 0.5\nentropy = 0.722\nsamples = 10\nvalue = [0, 8, 2]"] ;
26 -> 30 ;
31 [label="entropy = 0.503\nsamples = 9\nvalue = [0, 8, 1]"] ;
30 -> 31 ;
32 [label="entropy = 0.0\nsamples = 1\nvalue = [0, 0, 1]"] ;
30 -> 32 ;
33 [label="X[9] <= 3.5\nentropy = 1.185\nsamples = 1540\nvalue = [292, 1067, 181]"] ;
1 -> 33 ;
34 [label="X[4] <= 0.5\nentropy = 1.399\nsamples = 570\nvalue = [133, 330, 107]"] ;
33 -> 34 ;
35 [label="X[46] <= 0.5\nentropy = 1.359\nsamples = 532\nvalue = [121, 321, 90]"] ;
34 -> 35 ;
36 [label="X[20] <= 0.5\nentropy = 1.305\nsamples = 472\nvalue = [103, 299, 70]"] ;
35 -> 36 ;
37 [label="entropy = 1.382\nsamples = 394\nvalue = [93, 232, 69]"] ;
36 -> 37 ;
38 [label="entropy = 0.649\nsamples = 78\nvalue = [10, 67, 1]"] ;
36 -> 38 ;
39 [label="X[2] <= 4.5\nentropy = 1.58\nsamples = 60\nvalue = [18, 22, 20]"] ;
35 -> 39 ;
40 [label="entropy = 1.553\nsamples = 53\nvalue = [13, 22, 18]"] ;
39 -> 40 ;
41 [label="entropy = 0.863\nsamples = 7\nvalue = [5, 0, 2]"] ;
39 -> 41 ;
42 [label="X[2] <= 2.5\nentropy = 1.536\nsamples = 38\nvalue = [12, 9, 17]"] ;
34 -> 42 ;
43 [label="X[18] <= 0.5\nentropy = 1.248\nsamples = 16\nvalue = [9, 1, 6]"] ;
42 -> 43 ;
44 [label="entropy = 0.994\nsamples = 11\nvalue = [5, 0, 6]"] ;
43 -> 44 ;
45 [label="entropy = 0.722\nsamples = 5\nvalue = [4, 1, 0]"] ;
43 -> 45 ;
46 [label="X[9] <= 1.5\nentropy = 1.423\nsamples = 22\nvalue = [3, 8, 11]"] ;
42 -> 46 ;
47 [label="entropy = 1.406\nsamples = 8\nvalue = [3, 1, 4]"] ;
46 -> 47 ;
48 [label="entropy = 1.0\nsamples = 14\nvalue = [0, 7, 7]"] ;
46 -> 48 ;
49 [label="X[20] <= 0.5\nentropy = 1.012\nsamples = 970\nvalue = [159, 737, 74]"] ;
33 -> 49 ;
50 [label="X[6] <= 1.5\nentropy = 1.082\nsamples = 800\nvalue = [147, 585, 68]"] ;
49 -> 50 ;
51 [label="X[35] <= 6.5\nentropy = 1.181\nsamples = 605\nvalue = [132, 414, 59]"] ;
50 -> 51 ;
52 [label="entropy = 1.137\nsamples = 563\nvalue = [120, 395, 48]"] ;
51 -> 52 ;
53 [label="entropy = 1.54\nsamples = 42\nvalue = [12, 19, 11]"] ;
51 -> 53 ;
54 [label="X[13] <= 0.5\nentropy = 0.656\nsamples = 195\nvalue = [15, 171, 9]"] ;
50 -> 54 ;
55 [label="entropy = 0.734\nsamples = 166\nvalue = [15, 142, 9]"] ;
54 -> 55 ;
56 [label="entropy = 0.0\nsamples = 29\nvalue = [0, 29, 0]"] ;
54 -> 56 ;
57 [label="X[2] <= 2.5\nentropy = 0.585\nsamples = 170\nvalue = [12, 152, 6]"] ;
49 -> 57 ;
58 [label="X[41] <= 1.5\nentropy = 0.755\nsamples = 100\nvalue = [9, 85, 6]"] ;
57 -> 58 ;
59 [label="entropy = 0.655\nsamples = 83\nvalue = [9, 72, 2]"] ;
58 -> 59 ;
60 [label="entropy = 0.787\nsamples = 17\nvalue = [0, 13, 4]"] ;
58 -> 60 ;
61 [label="X[51] <= 0.5\nentropy = 0.255\nsamples = 70\nvalue = [3, 67, 0]"] ;
57 -> 61 ;
62 [label="entropy = 0.113\nsamples = 66\nvalue = [1, 65, 0]"] ;
61 -> 62 ;
63 [label="entropy = 1.0\nsamples = 4\nvalue = [2, 2, 0]"] ;
61 -> 63 ;
64 [label="X[6] <= 0.5\nentropy = 1.521\nsamples = 1766\nvalue = [405, 532, 829]"] ;
0 -> 64 [labeldistance=2.5, labelangle=-45, headlabel="False"] ;
65 [label="X[46] <= 0.5\nentropy = 1.487\nsamples = 1379\nvalue = [318, 356, 705]"] ;
64 -> 65 ;
66 [label="X[5] <= 0.5\nentropy = 1.52\nsamples = 1219\nvalue = [300, 337, 582]"] ;
65 -> 66 ;
67 [label="X[45] <= 0.5\nentropy = 1.501\nsamples = 1100\nvalue = [275, 276, 549]"] ;
66 -> 67 ;
68 [label="X[32] <= 1.5\nentropy = 1.547\nsamples = 783\nvalue = [215, 220, 348]"] ;
67 -> 68 ;
69 [label="entropy = 1.568\nsamples = 633\nvalue = [179, 198, 256]"] ;
68 -> 69 ;
70 [label="entropy = 1.333\nsamples = 150\nvalue = [36, 22, 92]"] ;
68 -> 70 ;
71 [label="X[20] <= 0.5\nentropy = 1.313\nsamples = 317\nvalue = [60, 56, 201]"] ;
67 -> 71 ;
72 [label="entropy = 1.262\nsamples = 298\nvalue = [54, 47, 197]"] ;
71 -> 72 ;
73 [label="entropy = 1.509\nsamples = 19\nvalue = [6, 9, 4]"] ;
71 -> 73 ;
74 [label="X[26] <= 8.5\nentropy = 1.48\nsamples = 119\nvalue = [25, 61, 33]"] ;
66 -> 74 ;
75 [label="X[29] <= 1.5\nentropy = 0.998\nsamples = 17\nvalue = [0, 9, 8]"] ;
74 -> 75 ;
76 [label="entropy = 0.544\nsamples = 8\nvalue = [0, 1, 7]"] ;
75 -> 76 ;
77 [label="entropy = 0.503\nsamples = 9\nvalue = [0, 8, 1]"] ;
75 -> 77 ;
78 [label="X[32] <= 1.5\nentropy = 1.49\nsamples = 102\nvalue = [25, 52, 25]"] ;
74 -> 78 ;
79 [label="entropy = 1.404\nsamples = 82\nvalue = [23, 46, 13]"] ;
78 -> 79 ;
80 [label="entropy = 1.295\nsamples = 20\nvalue = [2, 6, 12]"] ;
78 -> 80 ;
81 [label="X[35] <= 2.5\nentropy = 1.011\nsamples = 160\nvalue = [18, 19, 123]"] ;
65 -> 81 ;
82 [label="X[9] <= 3.5\nentropy = 1.39\nsamples = 46\nvalue = [10, 9, 27]"] ;
81 -> 82 ;
83 [label="X[3] <= 4.5\nentropy = 0.672\nsamples = 17\nvalue = [3, 0, 14]"] ;
82 -> 83 ;
84 [label="entropy = 0.353\nsamples = 15\nvalue = [1, 0, 14]"] ;
83 -> 84 ;
85 [label="entropy = 0.0\nsamples = 2\nvalue = [2, 0, 0]"] ;
83 -> 85 ;
86 [label="X[20] <= 0.5\nentropy = 1.538\nsamples = 29\nvalue = [7, 9, 13]"] ;
82 -> 86 ;
87 [label="entropy = 1.451\nsamples = 24\nvalue = [5, 6, 13]"] ;
86 -> 87 ;
88 [label="entropy = 0.971\nsamples = 5\nvalue = [2, 3, 0]"] ;
86 -> 88 ;
89 [label="X[9] <= 2.5\nentropy = 0.786\nsamples = 114\nvalue = [8, 10, 96]"] ;
81 -> 89 ;
90 [label="X[5] <= 0.5\nentropy = 1.023\nsamples = 22\nvalue = [5, 1, 16]"] ;
89 -> 90 ;
91 [label="entropy = 0.414\nsamples = 12\nvalue = [0, 1, 11]"] ;
90 -> 91 ;
92 [label="entropy = 1.0\nsamples = 10\nvalue = [5, 0, 5]"] ;
90 -> 92 ;
93 [label="X[20] <= 0.5\nentropy = 0.664\nsamples = 92\nvalue = [3, 9, 80]"] ;
89 -> 93 ;
94 [label="entropy = 0.465\nsamples = 71\nvalue = [0, 7, 64]"] ;
93 -> 94 ;
95 [label="entropy = 1.023\nsamples = 21\nvalue = [3, 2, 16]"] ;
93 -> 95 ;
96 [label="X[9] <= 3.5\nentropy = 1.527\nsamples = 387\nvalue = [87, 176, 124]"] ;
64 -> 96 ;
97 [label="X[27] <= 1.5\nentropy = 1.571\nsamples = 133\nvalue = [37, 44, 52]"] ;
96 -> 97 ;
98 [label="X[22] <= 0.5\nentropy = 0.722\nsamples = 10\nvalue = [0, 2, 8]"] ;
97 -> 98 ;
99 [label="X[17] <= 0.5\nentropy = 0.503\nsamples = 9\nvalue = [0, 1, 8]"] ;
98 -> 99 ;
100 [label="entropy = 1.0\nsamples = 2\nvalue = [0, 1, 1]"] ;
99 -> 100 ;
101 [label="entropy = 0.0\nsamples = 7\nvalue = [0, 0, 7]"] ;
99 -> 101 ;
102 [label="entropy = 0.0\nsamples = 1\nvalue = [0, 1, 0]"] ;
98 -> 102 ;
103 [label="X[51] <= 0.5\nentropy = 1.581\nsamples = 123\nvalue = [37, 42, 44]"] ;
97 -> 103 ;
104 [label="X[32] <= 1.5\nentropy = 1.582\nsamples = 116\nvalue = [37, 42, 37]"] ;
103 -> 104 ;
105 [label="entropy = 1.573\nsamples = 99\nvalue = [36, 36, 27]"] ;
104 -> 105 ;
106 [label="entropy = 1.221\nsamples = 17\nvalue = [1, 6, 10]"] ;
104 -> 106 ;
107 [label="entropy = 0.0\nsamples = 7\nvalue = [0, 0, 7]"] ;
103 -> 107 ;
108 [label="X[0] <= 6.5\nentropy = 1.468\nsamples = 254\nvalue = [50, 132, 72]"] ;
96 -> 108 ;
109 [label="entropy = 0.0\nsamples = 12\nvalue = [0, 12, 0]"] ;
108 -> 109 ;
110 [label="X[32] <= 2.5\nentropy = 1.492\nsamples = 242\nvalue = [50, 120, 72]"] ;
108 -> 110 ;
111 [label="X[3] <= 1.5\nentropy = 1.48\nsamples = 234\nvalue = [49, 120, 65]"] ;
110 -> 111 ;
112 [label="entropy = 1.35\nsamples = 100\nvalue = [22, 61, 17]"] ;
111 -> 112 ;
113 [label="entropy = 1.517\nsamples = 134\nvalue = [27, 59, 48]"] ;
111 -> 113 ;
114 [label="X[26] <= 17.0\nentropy = 0.544\nsamples = 8\nvalue = [1, 0, 7]"] ;
110 -> 114 ;
115 [label="entropy = 0.0\nsamples = 7\nvalue = [0, 0, 7]"] ;
114 -> 115 ;
116 [label="entropy = 0.0\nsamples = 1\nvalue = [1, 0, 0]"] ;
114 -> 116 ;
}