digraph Tree {
node [shape=box] ;
0 [label="X[28] <= 0.5\nentropy = 1.533\nsamples = 9073\nvalue = [2309, 4188, 2576]"] ;
1 [label="X[6] <= 0.5\nentropy = 1.499\nsamples = 7307\nvalue = [1904, 3656, 1747]"] ;
0 -> 1 [labeldistance=2.5, labelangle=45, headlabel="True"] ;
2 [label="X[15] <= 0.5\nentropy = 1.543\nsamples = 5767\nvalue = [1612, 2589, 1566]"] ;
1 -> 2 ;
3 [label="X[16] <= 0.5\nentropy = 1.573\nsamples = 3871\nvalue = [1147, 1521, 1203]"] ;
2 -> 3 ;
4 [label="X[21] <= 0.5\nentropy = 1.581\nsamples = 3311\nvalue = [1009, 1197, 1105]"] ;
3 -> 4 ;
5 [label="X[37] <= 0.5\nentropy = 1.583\nsamples = 3023\nvalue = [950, 1008, 1065]"] ;
4 -> 5 ;
6 [label="entropy = 1.581\nsamples = 2278\nvalue = [772, 821, 685]"] ;
5 -> 6 ;
7 [label="entropy = 1.489\nsamples = 745\nvalue = [178, 187, 380]"] ;
5 -> 7 ;
8 [label="X[37] <= 0.5\nentropy = 1.263\nsamples = 288\nvalue = [59, 189, 40]"] ;
4 -> 8 ;
9 [label="entropy = 1.101\nsamples = 219\nvalue = [36, 160, 23]"] ;
8 -> 9 ;
10 [label="entropy = 1.552\nsamples = 69\nvalue = [23, 29, 17]"] ;
8 -> 10 ;
11 [label="X[21] <= 0.5\nentropy = 1.395\nsamples = 560\nvalue = [138, 324, 98]"] ;
3 -> 11 ;
12 [label="X[29] <= 4.5\nentropy = 1.437\nsamples = 512\nvalue = [136, 280, 96]"] ;
11 -> 12 ;
13 [label="entropy = 1.369\nsamples = 395\nvalue = [112, 228, 55]"] ;
12 -> 13 ;
14 [label="entropy = 1.519\nsamples = 117\nvalue = [24, 52, 41]"] ;
12 -> 14 ;
15 [label="X[26] <= 0.5\nentropy = 0.497\nsamples = 48\nvalue = [2, 44, 2]"] ;
11 -> 15 ;
16 [label="entropy = 0.292\nsamples = 39\nvalue = [0, 37, 2]"] ;
15 -> 16 ;
17 [label="entropy = 0.764\nsamples = 9\nvalue = [2, 7, 0]"] ;
15 -> 17 ;
18 [label="X[37] <= 0.5\nentropy = 1.42\nsamples = 1896\nvalue = [465, 1068, 363]"] ;
2 -> 18 ;
19 [label="X[38] <= 0.5\nentropy = 1.353\nsamples = 1434\nvalue = [339, 867, 228]"] ;
18 -> 19 ;
20 [label="X[29] <= 2.5\nentropy = 1.307\nsamples = 1282\nvalue = [290, 808, 184]"] ;
19 -> 20 ;
21 [label="entropy = 1.118\nsamples = 567\nvalue = [117, 403, 47]"] ;
20 -> 21 ;
22 [label="entropy = 1.417\nsamples = 715\nvalue = [173, 405, 137]"] ;
20 -> 22 ;
23 [label="X[16] <= 0.5\nentropy = 1.574\nsamples = 152\nvalue = [49, 59, 44]"] ;
19 -> 23 ;
24 [label="entropy = 1.584\nsamples = 113\nvalue = [36, 38, 39]"] ;
23 -> 24 ;
25 [label="entropy = 1.389\nsamples = 39\nvalue = [13, 21, 5]"] ;
23 -> 25 ;
26 [label="X[16] <= 0.5\nentropy = 1.552\nsamples = 462\nvalue = [126, 201, 135]"] ;
18 -> 26 ;
27 [label="X[41] <= 0.5\nentropy = 1.566\nsamples = 389\nvalue = [106, 157, 126]"] ;
26 -> 27 ;
28 [label="entropy = 1.556\nsamples = 349\nvalue = [87, 143, 119]"] ;
27 -> 28 ;
29 [label="entropy = 1.48\nsamples = 40\nvalue = [19, 14, 7]"] ;
27 -> 29 ;
30 [label="X[17] <= 6.5\nentropy = 1.324\nsamples = 73\nvalue = [20, 44, 9]"] ;
26 -> 30 ;
31 [label="entropy = 0.98\nsamples = 45\nvalue = [4, 35, 6]"] ;
30 -> 31 ;
32 [label="entropy = 1.333\nsamples = 28\nvalue = [16, 9, 3]"] ;
30 -> 32 ;
33 [label="X[7] <= 3.5\nentropy = 1.185\nsamples = 1540\nvalue = [292, 1067, 181]"] ;
1 -> 33 ;
34 [label="X[38] <= 0.5\nentropy = 1.399\nsamples = 570\nvalue = [133, 330, 107]"] ;
33 -> 34 ;
35 [label="X[5] <= 0.5\nentropy = 1.337\nsamples = 497\nvalue = [112, 306, 79]"] ;
34 -> 35 ;
36 [label="X[21] <= 0.5\nentropy = 1.394\nsamples = 434\nvalue = [104, 252, 78]"] ;
35 -> 36 ;
37 [label="entropy = 1.432\nsamples = 385\nvalue = [94, 214, 77]"] ;
36 -> 37 ;
38 [label="entropy = 0.867\nsamples = 49\nvalue = [10, 38, 1]"] ;
36 -> 38 ;
39 [label="X[2] <= 4.5\nentropy = 0.664\nsamples = 63\nvalue = [8, 54, 1]"] ;
35 -> 39 ;
40 [label="entropy = 0.667\nsamples = 46\nvalue = [8, 38, 0]"] ;
39 -> 40 ;
41 [label="entropy = 0.323\nsamples = 17\nvalue = [0, 16, 1]"] ;
39 -> 41 ;
42 [label="X[22] <= 9.5\nentropy = 1.575\nsamples = 73\nvalue = [21, 24, 28]"] ;
34 -> 42 ;
43 [label="X[25] <= 1.5\nentropy = 1.252\nsamples = 18\nvalue = [9, 1, 8]"] ;
42 -> 43 ;
44 [label="entropy = 0.722\nsamples = 5\nvalue = [0, 1, 4]"] ;
43 -> 44 ;
45 [label="entropy = 0.89\nsamples = 13\nvalue = [9, 0, 4]"] ;
43 -> 45 ;
46 [label="X[1] <= 3.5\nentropy = 1.536\nsamples = 55\nvalue = [12, 23, 20]"] ;
42 -> 46 ;
47 [label="entropy = 1.309\nsamples = 24\nvalue = [2, 9, 13]"] ;
46 -> 47 ;
48 [label="entropy = 1.529\nsamples = 31\nvalue = [10, 14, 7]"] ;
46 -> 48 ;
49 [label="X[6] <= 1.5\nentropy = 1.012\nsamples = 970\nvalue = [159, 737, 74]"] ;
33 -> 49 ;
50 [label="X[15] <= 1.5\nentropy = 1.111\nsamples = 737\nvalue = [143, 529, 65]"] ;
49 -> 50 ;
51 [label="X[35] <= 1.5\nentropy = 1.16\nsamples = 659\nvalue = [136, 459, 64]"] ;
50 -> 51 ;
52 [label="entropy = 1.064\nsamples = 523\nvalue = [97, 385, 41]"] ;
51 -> 52 ;
53 [label="entropy = 1.428\nsamples = 136\nvalue = [39, 74, 23]"] ;
51 -> 53 ;
54 [label="X[22] <= 15.5\nentropy = 0.533\nsamples = 78\nvalue = [7, 70, 1]"] ;
50 -> 54 ;
55 [label="entropy = 0.337\nsamples = 59\nvalue = [2, 56, 1]"] ;
54 -> 55 ;
56 [label="entropy = 0.831\nsamples = 19\nvalue = [5, 14, 0]"] ;
54 -> 56 ;
57 [label="X[37] <= 0.5\nentropy = 0.593\nsamples = 233\nvalue = [16, 208, 9]"] ;
49 -> 57 ;
58 [label="X[24] <= 0.5\nentropy = 0.456\nsamples = 186\nvalue = [9, 172, 5]"] ;
57 -> 58 ;
59 [label="entropy = 0.625\nsamples = 32\nvalue = [5, 27, 0]"] ;
58 -> 59 ;
60 [label="entropy = 0.379\nsamples = 154\nvalue = [4, 145, 5]"] ;
58 -> 60 ;
61 [label="X[29] <= 7.5\nentropy = 1.006\nsamples = 47\nvalue = [7, 36, 4]"] ;
57 -> 61 ;
62 [label="entropy = 0.879\nsamples = 43\nvalue = [4, 35, 4]"] ;
61 -> 62 ;
63 [label="entropy = 0.811\nsamples = 4\nvalue = [3, 1, 0]"] ;
61 -> 63 ;
64 [label="X[38] <= 0.5\nentropy = 1.521\nsamples = 1766\nvalue = [405, 532, 829]"] ;
0 -> 64 [labeldistance=2.5, labelangle=-45, headlabel="False"] ;
65 [label="X[28] <= 1.5\nentropy = 1.544\nsamples = 1558\nvalue = [379, 497, 682]"] ;
64 -> 65 ;
66 [label="X[43] <= 0.5\nentropy = 1.564\nsamples = 1269\nvalue = [327, 444, 498]"] ;
65 -> 66 ;
67 [label="X[37] <= 0.5\nentropy = 1.57\nsamples = 1171\nvalue = [312, 430, 429]"] ;
66 -> 67 ;
68 [label="X[16] <= 0.5\nentropy = 1.565\nsamples = 859\nvalue = [239, 352, 268]"] ;
67 -> 68 ;
69 [label="entropy = 1.578\nsamples = 733\nvalue = [211, 267, 255]"] ;
68 -> 69 ;
70 [label="entropy = 1.203\nsamples = 126\nvalue = [28, 85, 13]"] ;
68 -> 70 ;
71 [label="X[6] <= 0.5\nentropy = 1.483\nsamples = 312\nvalue = [73, 78, 161]"] ;
67 -> 71 ;
72 [label="entropy = 1.431\nsamples = 256\nvalue = [58, 55, 143]"] ;
71 -> 72 ;
73 [label="entropy = 1.563\nsamples = 56\nvalue = [15, 23, 18]"] ;
71 -> 73 ;
74 [label="X[21] <= 0.5\nentropy = 1.172\nsamples = 98\nvalue = [15, 14, 69]"] ;
66 -> 74 ;
75 [label="X[16] <= 0.5\nentropy = 1.088\nsamples = 92\nvalue = [13, 11, 68]"] ;
74 -> 75 ;
76 [label="entropy = 0.913\nsamples = 80\nvalue = [10, 6, 64]"] ;
75 -> 76 ;
77 [label="entropy = 1.555\nsamples = 12\nvalue = [3, 5, 4]"] ;
75 -> 77 ;
78 [label="X[11] <= 1.5\nentropy = 1.459\nsamples = 6\nvalue = [2, 3, 1]"] ;
74 -> 78 ;
79 [label="entropy = 0.918\nsamples = 3\nvalue = [2, 0, 1]"] ;
78 -> 79 ;
80 [label="entropy = 0.0\nsamples = 3\nvalue = [0, 3, 0]"] ;
78 -> 80 ;
81 [label="X[29] <= 2.5\nentropy = 1.309\nsamples = 289\nvalue = [52, 53, 184]"] ;
65 -> 81 ;
82 [label="X[7] <= 7.5\nentropy = 1.558\nsamples = 71\nvalue = [22, 19, 30]"] ;
81 -> 82 ;
83 [label="X[5] <= 0.5\nentropy = 1.487\nsamples = 57\nvalue = [18, 11, 28]"] ;
82 -> 83 ;
84 [label="entropy = 1.436\nsamples = 49\nvalue = [18, 7, 24]"] ;
83 -> 84 ;
85 [label="entropy = 1.0\nsamples = 8\nvalue = [0, 4, 4]"] ;
83 -> 85 ;
86 [label="X[12] <= 0.5\nentropy = 1.379\nsamples = 14\nvalue = [4, 8, 2]"] ;
82 -> 86 ;
87 [label="entropy = 0.971\nsamples = 10\nvalue = [4, 6, 0]"] ;
86 -> 87 ;
88 [label="entropy = 1.0\nsamples = 4\nvalue = [0, 2, 2]"] ;
86 -> 88 ;
89 [label="X[17] <= 8.5\nentropy = 1.166\nsamples = 218\nvalue = [30, 34, 154]"] ;
81 -> 89 ;
90 [label="X[1] <= 2.5\nentropy = 1.039\nsamples = 174\nvalue = [21, 21, 132]"] ;
89 -> 90 ;
91 [label="entropy = 0.0\nsamples = 17\nvalue = [0, 0, 17]"] ;
90 -> 91 ;
92 [label="entropy = 1.105\nsamples = 157\nvalue = [21, 21, 115]"] ;
90 -> 92 ;
93 [label="X[22] <= 8.5\nentropy = 1.488\nsamples = 44\nvalue = [9, 13, 22]"] ;
89 -> 93 ;
94 [label="entropy = 0.0\nsamples = 7\nvalue = [0, 0, 7]"] ;
93 -> 94 ;
95 [label="entropy = 1.554\nsamples = 37\nvalue = [9, 13, 15]"] ;
93 -> 95 ;
96 [label="X[11] <= 1.5\nentropy = 1.162\nsamples = 208\nvalue = [26, 35, 147]"] ;
64 -> 96 ;
97 [label="X[26] <= 0.5\nentropy = 1.103\nsamples = 149\nvalue = [23, 17, 109]"] ;
96 -> 97 ;
98 [label="X[1] <= 5.5\nentropy = 1.024\nsamples = 142\nvalue = [21, 13, 108]"] ;
97 -> 98 ;
99 [label="X[22] <= 11.5\nentropy = 1.245\nsamples = 76\nvalue = [17, 9, 50]"] ;
98 -> 99 ;
100 [label="entropy = 0.77\nsamples = 30\nvalue = [4, 1, 25]"] ;
99 -> 100 ;
101 [label="entropy = 1.432\nsamples = 46\nvalue = [13, 8, 25]"] ;
99 -> 101 ;
102 [label="X[32] <= 1.5\nentropy = 0.654\nsamples = 66\nvalue = [4, 4, 58]"] ;
98 -> 102 ;
103 [label="entropy = 0.477\nsamples = 63\nvalue = [2, 3, 58]"] ;
102 -> 103 ;
104 [label="entropy = 0.918\nsamples = 3\nvalue = [2, 1, 0]"] ;
102 -> 104 ;
105 [label="X[19] <= 0.5\nentropy = 1.379\nsamples = 7\nvalue = [2, 4, 1]"] ;
97 -> 105 ;
106 [label="X[23] <= 3.5\nentropy = 0.918\nsamples = 6\nvalue = [2, 4, 0]"] ;
105 -> 106 ;
107 [label="entropy = 0.918\nsamples = 3\nvalue = [2, 1, 0]"] ;
106 -> 107 ;
108 [label="entropy = 0.0\nsamples = 3\nvalue = [0, 3, 0]"] ;
106 -> 108 ;
109 [label="entropy = 0.0\nsamples = 1\nvalue = [0, 0, 1]"] ;
105 -> 109 ;
110 [label="X[28] <= 1.5\nentropy = 1.15\nsamples = 59\nvalue = [3, 18, 38]"] ;
96 -> 110 ;
111 [label="X[0] <= 15.5\nentropy = 1.094\nsamples = 47\nvalue = [1, 18, 28]"] ;
110 -> 111 ;
112 [label="X[19] <= 0.5\nentropy = 1.149\nsamples = 38\nvalue = [1, 18, 19]"] ;
111 -> 112 ;
113 [label="entropy = 1.0\nsamples = 36\nvalue = [0, 18, 18]"] ;
112 -> 113 ;
114 [label="entropy = 1.0\nsamples = 2\nvalue = [1, 0, 1]"] ;
112 -> 114 ;
115 [label="entropy = 0.0\nsamples = 9\nvalue = [0, 0, 9]"] ;
111 -> 115 ;
116 [label="X[1] <= 9.5\nentropy = 0.65\nsamples = 12\nvalue = [2, 0, 10]"] ;
110 -> 116 ;
117 [label="entropy = 0.0\nsamples = 9\nvalue = [0, 0, 9]"] ;
116 -> 117 ;
118 [label="X[7] <= 4.5\nentropy = 0.918\nsamples = 3\nvalue = [2, 0, 1]"] ;
116 -> 118 ;
119 [label="entropy = 0.0\nsamples = 1\nvalue = [0, 0, 1]"] ;
118 -> 119 ;
120 [label="entropy = 0.0\nsamples = 2\nvalue = [2, 0, 0]"] ;
118 -> 120 ;
}