digraph Tree {
node [shape=box] ;
0 [label="X[4] <= 5.5\ngini = 0.796\nsamples = 8035\nvalue = [1261, 1792, 1393, 1847, 1742]"] ;
1 [label="X[1] <= 23.5\ngini = 0.793\nsamples = 5643\nvalue = [1056, 1502, 1123, 1097, 865]"] ;
0 -> 1 [labeldistance=2.5, labelangle=45, headlabel="True"] ;
2 [label="X[6] <= 0.5\ngini = 0.773\nsamples = 2559\nvalue = [828, 609, 312, 366, 444]"] ;
1 -> 2 ;
3 [label="X[17] <= 0.5\ngini = 0.755\nsamples = 2088\nvalue = [781, 465, 236, 262, 344]"] ;
2 -> 3 ;
4 [label="X[7] <= 0.5\ngini = 0.769\nsamples = 1968\nvalue = [661, 465, 236, 262, 344]"] ;
3 -> 4 ;
5 [label="gini = 0.736\nsamples = 1308\nvalue = [515, 333, 101, 169, 190]"] ;
4 -> 5 ;
6 [label="gini = 0.795\nsamples = 660\nvalue = [146, 132, 135, 93, 154]"] ;
4 -> 6 ;
7 [label="gini = 0.0\nsamples = 120\nvalue = [120, 0, 0, 0, 0]"] ;
3 -> 7 ;
8 [label="X[18] <= 11.5\ngini = 0.777\nsamples = 471\nvalue = [47, 144, 76, 104, 100]"] ;
2 -> 8 ;
9 [label="X[7] <= 1.5\ngini = 0.747\nsamples = 304\nvalue = [28, 116, 48, 39, 73]"] ;
8 -> 9 ;
10 [label="gini = 0.736\nsamples = 268\nvalue = [28, 110, 34, 35, 61]"] ;
9 -> 10 ;
11 [label="gini = 0.698\nsamples = 36\nvalue = [0, 6, 14, 4, 12]"] ;
9 -> 11 ;
12 [label="X[18] <= 15.5\ngini = 0.753\nsamples = 167\nvalue = [19, 28, 28, 65, 27]"] ;
8 -> 12 ;
13 [label="gini = 0.785\nsamples = 117\nvalue = [14, 22, 25, 34, 22]"] ;
12 -> 13 ;
14 [label="gini = 0.578\nsamples = 50\nvalue = [5, 6, 3, 31, 5]"] ;
12 -> 14 ;
15 [label="X[7] <= 0.5\ngini = 0.767\nsamples = 3084\nvalue = [228, 893, 811, 731, 421]"] ;
1 -> 15 ;
16 [label="X[18] <= 11.5\ngini = 0.763\nsamples = 2003\nvalue = [188, 665, 396, 505, 249]"] ;
15 -> 16 ;
17 [label="X[4] <= 3.5\ngini = 0.756\nsamples = 1388\nvalue = [119, 511, 293, 261, 204]"] ;
16 -> 17 ;
18 [label="gini = 0.715\nsamples = 605\nvalue = [52, 263, 147, 91, 52]"] ;
17 -> 18 ;
19 [label="gini = 0.773\nsamples = 783\nvalue = [67, 248, 146, 170, 152]"] ;
17 -> 19 ;
20 [label="X[18] <= 15.5\ngini = 0.734\nsamples = 615\nvalue = [69, 154, 103, 244, 45]"] ;
16 -> 20 ;
21 [label="gini = 0.754\nsamples = 487\nvalue = [57, 135, 86, 166, 43]"] ;
20 -> 21 ;
22 [label="gini = 0.58\nsamples = 128\nvalue = [12, 19, 17, 78, 2]"] ;
20 -> 22 ;
23 [label="X[1] <= 31.5\ngini = 0.738\nsamples = 1081\nvalue = [40, 228, 415, 226, 172]"] ;
15 -> 23 ;
24 [label="X[4] <= 3.5\ngini = 0.759\nsamples = 792\nvalue = [39, 173, 263, 167, 150]"] ;
23 -> 24 ;
25 [label="gini = 0.722\nsamples = 353\nvalue = [16, 94, 143, 56, 44]"] ;
24 -> 25 ;
26 [label="gini = 0.768\nsamples = 439\nvalue = [23, 79, 120, 111, 106]"] ;
24 -> 26 ;
27 [label="X[8] <= 6.5\ngini = 0.64\nsamples = 289\nvalue = [1, 55, 152, 59, 22]"] ;
23 -> 27 ;
28 [label="gini = 0.699\nsamples = 96\nvalue = [1, 24, 39, 25, 7]"] ;
27 -> 28 ;
29 [label="gini = 0.594\nsamples = 193\nvalue = [0, 31, 113, 34, 15]"] ;
27 -> 29 ;
30 [label="X[4] <= 7.5\ngini = 0.732\nsamples = 2392\nvalue = [205, 290, 270, 750, 877]"] ;
0 -> 30 [labeldistance=2.5, labelangle=-45, headlabel="False"] ;
31 [label="X[1] <= 29.5\ngini = 0.762\nsamples = 1627\nvalue = [165, 245, 227, 508, 482]"] ;
30 -> 31 ;
32 [label="X[18] <= 13.5\ngini = 0.757\nsamples = 1053\nvalue = [153, 160, 92, 292, 356]"] ;
31 -> 32 ;
33 [label="X[18] <= 8.5\ngini = 0.758\nsamples = 848\nvalue = [125, 144, 80, 191, 308]"] ;
32 -> 33 ;
34 [label="gini = 0.722\nsamples = 350\nvalue = [38, 71, 32, 56, 153]"] ;
33 -> 34 ;
35 [label="gini = 0.768\nsamples = 498\nvalue = [87, 73, 48, 135, 155]"] ;
33 -> 35 ;
36 [label="X[16] <= 0.5\ngini = 0.674\nsamples = 205\nvalue = [28, 16, 12, 101, 48]"] ;
32 -> 36 ;
37 [label="gini = 0.611\nsamples = 117\nvalue = [9, 13, 7, 68, 20]"] ;
36 -> 37 ;
38 [label="gini = 0.707\nsamples = 88\nvalue = [19, 3, 5, 33, 28]"] ;
36 -> 38 ;
39 [label="X[18] <= 9.5\ngini = 0.733\nsamples = 574\nvalue = [12, 85, 135, 216, 126]"] ;
31 -> 39 ;
40 [label="X[7] <= 0.5\ngini = 0.759\nsamples = 241\nvalue = [5, 56, 64, 57, 59]"] ;
39 -> 40 ;
41 [label="gini = 0.751\nsamples = 155\nvalue = [4, 44, 25, 46, 36]"] ;
40 -> 41 ;
42 [label="gini = 0.687\nsamples = 86\nvalue = [1, 12, 39, 11, 23]"] ;
40 -> 42 ;
43 [label="X[1] <= 36.5\ngini = 0.678\nsamples = 333\nvalue = [7, 29, 71, 159, 67]"] ;
39 -> 43 ;
44 [label="gini = 0.685\nsamples = 264\nvalue = [7, 25, 47, 124, 61]"] ;
43 -> 44 ;
45 [label="gini = 0.611\nsamples = 69\nvalue = [0, 4, 24, 35, 6]"] ;
43 -> 45 ;
46 [label="X[1] <= 31.5\ngini = 0.624\nsamples = 765\nvalue = [40, 45, 43, 242, 395]"] ;
30 -> 46 ;
47 [label="X[18] <= 15.5\ngini = 0.573\nsamples = 501\nvalue = [35, 26, 14, 128, 298]"] ;
46 -> 47 ;
48 [label="X[18] <= 8.5\ngini = 0.557\nsamples = 460\nvalue = [32, 26, 14, 103, 285]"] ;
47 -> 48 ;
49 [label="gini = 0.49\nsamples = 173\nvalue = [13, 12, 5, 23, 120]"] ;
48 -> 49 ;
50 [label="gini = 0.584\nsamples = 287\nvalue = [19, 14, 9, 80, 165]"] ;
48 -> 50 ;
51 [label="X[10] <= 1.5\ngini = 0.522\nsamples = 41\nvalue = [3, 0, 0, 25, 13]"] ;
47 -> 51 ;
52 [label="gini = 0.467\nsamples = 37\nvalue = [2, 0, 0, 25, 10]"] ;
51 -> 52 ;
53 [label="gini = 0.375\nsamples = 4\nvalue = [1, 0, 0, 0, 3]"] ;
51 -> 53 ;
54 [label="X[4] <= 11.5\ngini = 0.661\nsamples = 264\nvalue = [5, 19, 29, 114, 97]"] ;
46 -> 54 ;
55 [label="X[18] <= 9.5\ngini = 0.661\nsamples = 249\nvalue = [5, 18, 29, 113, 84]"] ;
54 -> 55 ;
56 [label="gini = 0.681\nsamples = 120\nvalue = [2, 13, 14, 39, 52]"] ;
55 -> 56 ;
57 [label="gini = 0.594\nsamples = 129\nvalue = [3, 5, 15, 74, 32]"] ;
55 -> 57 ;
58 [label="X[18] <= 12.5\ngini = 0.24\nsamples = 15\nvalue = [0, 1, 0, 1, 13]"] ;
54 -> 58 ;
59 [label="gini = 0.133\nsamples = 14\nvalue = [0, 1, 0, 0, 13]"] ;
58 -> 59 ;
60 [label="gini = 0.0\nsamples = 1\nvalue = [0, 0, 0, 1, 0]"] ;
58 -> 60 ;
}