digraph Tree {
node [shape=box] ;
0 [label="X[1] <= 23.5\nentropy = 2.306\nsamples = 8035\nvalue = [1261, 1792, 1393, 1847, 1742]"] ;
1 [label="X[4] <= 3.5\nentropy = 2.244\nsamples = 3123\nvalue = [938, 673, 336, 487, 689]"] ;
0 -> 1 [labeldistance=2.5, labelangle=45, headlabel="True"] ;
2 [label="X[7] <= 0.5\nentropy = 2.172\nsamples = 1635\nvalue = [577, 432, 228, 182, 216]"] ;
1 -> 2 ;
3 [label="X[18] <= 11.5\nentropy = 2.058\nsamples = 1095\nvalue = [444, 311, 101, 122, 117]"] ;
2 -> 3 ;
4 [label="X[20] <= 0.5\nentropy = 2.059\nsamples = 728\nvalue = [276, 228, 70, 61, 93]"] ;
3 -> 4 ;
5 [label="X[8] <= 11.5\nentropy = 2.034\nsamples = 608\nvalue = [252, 174, 60, 50, 72]"] ;
4 -> 5 ;
6 [label="entropy = 1.994\nsamples = 529\nvalue = [219, 165, 43, 45, 57]"] ;
5 -> 6 ;
7 [label="entropy = 2.067\nsamples = 79\nvalue = [33, 9, 17, 5, 15]"] ;
5 -> 7 ;
8 [label="X[3] <= 3.5\nentropy = 2.038\nsamples = 120\nvalue = [24, 54, 10, 11, 21]"] ;
4 -> 8 ;
9 [label="entropy = 1.973\nsamples = 39\nvalue = [15, 11, 2, 2, 9]"] ;
8 -> 9 ;
10 [label="entropy = 1.927\nsamples = 81\nvalue = [9, 43, 8, 9, 12]"] ;
8 -> 10 ;
11 [label="X[6] <= 0.5\nentropy = 1.99\nsamples = 367\nvalue = [168, 83, 31, 61, 24]"] ;
3 -> 11 ;
12 [label="X[3] <= 6.5\nentropy = 1.9\nsamples = 312\nvalue = [157, 70, 20, 43, 22]"] ;
11 -> 12 ;
13 [label="entropy = 1.885\nsamples = 261\nvalue = [137, 54, 20, 30, 20]"] ;
12 -> 13 ;
14 [label="entropy = 1.74\nsamples = 51\nvalue = [20, 16, 0, 13, 2]"] ;
12 -> 14 ;
15 [label="X[9] <= 0.5\nentropy = 2.122\nsamples = 55\nvalue = [11, 13, 11, 18, 2]"] ;
11 -> 15 ;
16 [label="entropy = 2.084\nsamples = 48\nvalue = [11, 12, 6, 17, 2]"] ;
15 -> 16 ;
17 [label="entropy = 1.149\nsamples = 7\nvalue = [0, 1, 5, 1, 0]"] ;
15 -> 17 ;
18 [label="X[18] <= 11.5\nentropy = 2.273\nsamples = 540\nvalue = [133, 121, 127, 60, 99]"] ;
2 -> 18 ;
19 [label="X[6] <= 0.5\nentropy = 2.147\nsamples = 319\nvalue = [64, 87, 99, 16, 53]"] ;
18 -> 19 ;
20 [label="X[1] <= 18.5\nentropy = 2.135\nsamples = 256\nvalue = [61, 65, 80, 12, 38]"] ;
19 -> 20 ;
21 [label="entropy = 2.045\nsamples = 99\nvalue = [36, 21, 23, 2, 17]"] ;
20 -> 21 ;
22 [label="entropy = 2.108\nsamples = 157\nvalue = [25, 44, 57, 10, 21]"] ;
20 -> 22 ;
23 [label="X[6] <= 2.5\nentropy = 2.006\nsamples = 63\nvalue = [3, 22, 19, 4, 15]"] ;
19 -> 23 ;
24 [label="entropy = 1.907\nsamples = 61\nvalue = [1, 22, 19, 4, 15]"] ;
23 -> 24 ;
25 [label="entropy = 0.0\nsamples = 2\nvalue = [2, 0, 0, 0, 0]"] ;
23 -> 25 ;
26 [label="X[3] <= 8.5\nentropy = 2.252\nsamples = 221\nvalue = [69, 34, 28, 44, 46]"] ;
18 -> 26 ;
27 [label="X[2] <= 8.5\nentropy = 2.229\nsamples = 199\nvalue = [68, 33, 24, 35, 39]"] ;
26 -> 27 ;
28 [label="entropy = 2.099\nsamples = 57\nvalue = [21, 17, 5, 6, 8]"] ;
27 -> 28 ;
29 [label="entropy = 2.218\nsamples = 142\nvalue = [47, 16, 19, 29, 31]"] ;
27 -> 29 ;
30 [label="X[14] <= 2.5\nentropy = 1.906\nsamples = 22\nvalue = [1, 1, 4, 9, 7]"] ;
26 -> 30 ;
31 [label="entropy = 1.685\nsamples = 10\nvalue = [1, 1, 0, 3, 5]"] ;
30 -> 31 ;
32 [label="entropy = 1.459\nsamples = 12\nvalue = [0, 0, 4, 6, 2]"] ;
30 -> 32 ;
33 [label="X[4] <= 7.5\nentropy = 2.19\nsamples = 1488\nvalue = [361, 241, 108, 305, 473]"] ;
1 -> 33 ;
34 [label="X[7] <= 0.5\nentropy = 2.22\nsamples = 1349\nvalue = [343, 236, 107, 282, 381]"] ;
33 -> 34 ;
35 [label="X[18] <= 9.5\nentropy = 2.167\nsamples = 860\nvalue = [270, 169, 46, 170, 205]"] ;
34 -> 35 ;
36 [label="X[6] <= 0.5\nentropy = 2.1\nsamples = 365\nvalue = [103, 88, 22, 34, 118]"] ;
35 -> 36 ;
37 [label="entropy = 2.046\nsamples = 277\nvalue = [97, 58, 17, 20, 85]"] ;
36 -> 37 ;
38 [label="entropy = 1.981\nsamples = 88\nvalue = [6, 30, 5, 14, 33]"] ;
36 -> 38 ;
39 [label="X[2] <= 8.5\nentropy = 2.121\nsamples = 495\nvalue = [167, 81, 24, 136, 87]"] ;
35 -> 39 ;
40 [label="entropy = 2.054\nsamples = 132\nvalue = [47, 38, 6, 28, 13]"] ;
39 -> 40 ;
41 [label="entropy = 2.095\nsamples = 363\nvalue = [120, 43, 18, 108, 74]"] ;
39 -> 41 ;
42 [label="X[18] <= 13.5\nentropy = 2.195\nsamples = 489\nvalue = [73, 67, 61, 112, 176]"] ;
34 -> 42 ;
43 [label="X[2] <= 10.5\nentropy = 2.192\nsamples = 375\nvalue = [55, 59, 51, 67, 143]"] ;
42 -> 43 ;
44 [label="entropy = 2.231\nsamples = 189\nvalue = [25, 37, 39, 25, 63]"] ;
43 -> 44 ;
45 [label="entropy = 2.052\nsamples = 186\nvalue = [30, 22, 12, 42, 80]"] ;
43 -> 45 ;
46 [label="X[1] <= 16.5\nentropy = 2.045\nsamples = 114\nvalue = [18, 8, 10, 45, 33]"] ;
42 -> 46 ;
47 [label="entropy = 1.797\nsamples = 15\nvalue = [7, 0, 2, 2, 4]"] ;
46 -> 47 ;
48 [label="entropy = 1.98\nsamples = 99\nvalue = [11, 8, 8, 43, 29]"] ;
46 -> 48 ;
49 [label="X[4] <= 8.5\nentropy = 1.429\nsamples = 139\nvalue = [18, 5, 1, 23, 92]"] ;
33 -> 49 ;
50 [label="X[7] <= 0.5\nentropy = 1.682\nsamples = 86\nvalue = [14, 5, 1, 18, 48]"] ;
49 -> 50 ;
51 [label="X[14] <= 4.5\nentropy = 1.931\nsamples = 51\nvalue = [12, 5, 1, 11, 22]"] ;
50 -> 51 ;
52 [label="entropy = 1.796\nsamples = 46\nvalue = [9, 5, 0, 10, 22]"] ;
51 -> 52 ;
53 [label="entropy = 1.371\nsamples = 5\nvalue = [3, 0, 1, 1, 0]"] ;
51 -> 53 ;
54 [label="X[18] <= 16.5\nentropy = 1.019\nsamples = 35\nvalue = [2, 0, 0, 7, 26]"] ;
50 -> 54 ;
55 [label="entropy = 0.929\nsamples = 33\nvalue = [2, 0, 0, 5, 26]"] ;
54 -> 55 ;
56 [label="entropy = 0.0\nsamples = 2\nvalue = [0, 0, 0, 2, 0]"] ;
54 -> 56 ;
57 [label="X[18] <= 11.5\nentropy = 0.826\nsamples = 53\nvalue = [4, 0, 0, 5, 44]"] ;
49 -> 57 ;
58 [label="X[4] <= 9.5\nentropy = 0.866\nsamples = 25\nvalue = [4, 0, 0, 1, 20]"] ;
57 -> 58 ;
59 [label="entropy = 0.787\nsamples = 17\nvalue = [4, 0, 0, 0, 13]"] ;
58 -> 59 ;
60 [label="entropy = 0.544\nsamples = 8\nvalue = [0, 0, 0, 1, 7]"] ;
58 -> 60 ;
61 [label="X[7] <= 0.5\nentropy = 0.592\nsamples = 28\nvalue = [0, 0, 0, 4, 24]"] ;
57 -> 61 ;
62 [label="entropy = 0.787\nsamples = 17\nvalue = [0, 0, 0, 4, 13]"] ;
61 -> 62 ;
63 [label="entropy = 0.0\nsamples = 11\nvalue = [0, 0, 0, 0, 11]"] ;
61 -> 63 ;
64 [label="X[7] <= 0.5\nentropy = 2.211\nsamples = 4912\nvalue = [323, 1119, 1057, 1360, 1053]"] ;
0 -> 64 [labeldistance=2.5, labelangle=-45, headlabel="False"] ;
65 [label="X[3] <= 4.5\nentropy = 2.215\nsamples = 3130\nvalue = [266, 827, 504, 915, 618]"] ;
64 -> 65 ;
66 [label="X[6] <= 0.5\nentropy = 2.223\nsamples = 1572\nvalue = [172, 444, 218, 454, 284]"] ;
65 -> 66 ;
67 [label="X[4] <= 4.5\nentropy = 2.249\nsamples = 1207\nvalue = [161, 333, 165, 332, 216]"] ;
66 -> 67 ;
68 [label="X[1] <= 27.5\nentropy = 2.179\nsamples = 557\nvalue = [81, 211, 102, 104, 59]"] ;
67 -> 68 ;
69 [label="entropy = 2.205\nsamples = 278\nvalue = [61, 96, 34, 54, 33]"] ;
68 -> 69 ;
70 [label="entropy = 2.06\nsamples = 279\nvalue = [20, 115, 68, 50, 26]"] ;
68 -> 70 ;
71 [label="X[4] <= 8.5\nentropy = 2.177\nsamples = 650\nvalue = [80, 122, 63, 228, 157]"] ;
67 -> 71 ;
72 [label="entropy = 2.181\nsamples = 584\nvalue = [74, 117, 63, 215, 115]"] ;
71 -> 72 ;
73 [label="entropy = 1.473\nsamples = 66\nvalue = [6, 5, 0, 13, 42]"] ;
71 -> 73 ;
74 [label="X[18] <= 10.5\nentropy = 2.059\nsamples = 365\nvalue = [11, 111, 53, 122, 68]"] ;
66 -> 74 ;
75 [label="X[6] <= 1.5\nentropy = 2.041\nsamples = 220\nvalue = [7, 85, 30, 55, 43]"] ;
74 -> 75 ;
76 [label="entropy = 1.94\nsamples = 157\nvalue = [0, 56, 26, 43, 32]"] ;
75 -> 76 ;
77 [label="entropy = 2.015\nsamples = 63\nvalue = [7, 29, 4, 12, 11]"] ;
75 -> 77 ;
78 [label="X[2] <= 6.5\nentropy = 1.961\nsamples = 145\nvalue = [4, 26, 23, 67, 25]"] ;
74 -> 78 ;
79 [label="entropy = 1.762\nsamples = 25\nvalue = [0, 11, 4, 8, 2]"] ;
78 -> 79 ;
80 [label="entropy = 1.92\nsamples = 120\nvalue = [4, 15, 19, 59, 23]"] ;
78 -> 80 ;
81 [label="X[2] <= 9.5\nentropy = 2.187\nsamples = 1558\nvalue = [94, 383, 286, 461, 334]"] ;
65 -> 81 ;
82 [label="X[4] <= 5.5\nentropy = 2.203\nsamples = 801\nvalue = [54, 227, 163, 205, 152]"] ;
81 -> 82 ;
83 [label="X[6] <= 0.5\nentropy = 2.164\nsamples = 525\nvalue = [45, 179, 128, 113, 60]"] ;
82 -> 83 ;
84 [label="entropy = 2.209\nsamples = 419\nvalue = [43, 135, 102, 84, 55]"] ;
83 -> 84 ;
85 [label="entropy = 1.851\nsamples = 106\nvalue = [2, 44, 26, 29, 5]"] ;
83 -> 85 ;
86 [label="X[4] <= 7.5\nentropy = 2.034\nsamples = 276\nvalue = [9, 48, 35, 92, 92]"] ;
82 -> 86 ;
87 [label="entropy = 2.118\nsamples = 179\nvalue = [8, 38, 28, 62, 43]"] ;
86 -> 87 ;
88 [label="entropy = 1.701\nsamples = 97\nvalue = [1, 10, 7, 30, 49]"] ;
86 -> 88 ;
89 [label="X[4] <= 5.5\nentropy = 2.143\nsamples = 757\nvalue = [40, 156, 123, 256, 182]"] ;
81 -> 89 ;
90 [label="X[18] <= 14.5\nentropy = 2.169\nsamples = 480\nvalue = [30, 134, 98, 144, 74]"] ;
89 -> 90 ;
91 [label="entropy = 2.188\nsamples = 435\nvalue = [29, 129, 95, 112, 70]"] ;
90 -> 91 ;
92 [label="entropy = 1.395\nsamples = 45\nvalue = [1, 5, 3, 32, 4]"] ;
90 -> 92 ;
93 [label="X[18] <= 13.5\nentropy = 1.834\nsamples = 277\nvalue = [10, 22, 25, 112, 108]"] ;
89 -> 93 ;
94 [label="entropy = 1.896\nsamples = 228\nvalue = [10, 20, 23, 80, 95]"] ;
93 -> 94 ;
95 [label="entropy = 1.286\nsamples = 49\nvalue = [0, 2, 2, 32, 13]"] ;
93 -> 95 ;
96 [label="X[18] <= 9.5\nentropy = 2.107\nsamples = 1782\nvalue = [57, 292, 553, 445, 435]"] ;
64 -> 96 ;
97 [label="X[13] <= 1.5\nentropy = 2.03\nsamples = 746\nvalue = [19, 142, 266, 101, 218]"] ;
96 -> 97 ;
98 [label="X[5] <= 0.5\nentropy = 2.05\nsamples = 694\nvalue = [18, 138, 236, 100, 202]"] ;
97 -> 98 ;
99 [label="X[4] <= 6.5\nentropy = 2.032\nsamples = 615\nvalue = [17, 117, 219, 80, 182]"] ;
98 -> 99 ;
100 [label="entropy = 2.013\nsamples = 482\nvalue = [15, 110, 198, 60, 99]"] ;
99 -> 100 ;
101 [label="entropy = 1.571\nsamples = 133\nvalue = [2, 7, 21, 20, 83]"] ;
99 -> 101 ;
102 [label="X[1] <= 30.5\nentropy = 2.068\nsamples = 79\nvalue = [1, 21, 17, 20, 20]"] ;
98 -> 102 ;
103 [label="entropy = 1.982\nsamples = 52\nvalue = [1, 18, 5, 13, 15]"] ;
102 -> 103 ;
104 [label="entropy = 1.828\nsamples = 27\nvalue = [0, 3, 12, 7, 5]"] ;
102 -> 104 ;
105 [label="X[4] <= 4.5\nentropy = 1.485\nsamples = 52\nvalue = [1, 4, 30, 1, 16]"] ;
97 -> 105 ;
106 [label="X[6] <= 0.5\nentropy = 0.964\nsamples = 28\nvalue = [0, 3, 22, 0, 3]"] ;
105 -> 106 ;
107 [label="entropy = 0.575\nsamples = 22\nvalue = [0, 3, 19, 0, 0]"] ;
106 -> 107 ;
108 [label="entropy = 1.0\nsamples = 6\nvalue = [0, 0, 3, 0, 3]"] ;
106 -> 108 ;
109 [label="X[4] <= 5.5\nentropy = 1.581\nsamples = 24\nvalue = [1, 1, 8, 1, 13]"] ;
105 -> 109 ;
110 [label="entropy = 1.252\nsamples = 6\nvalue = [0, 1, 0, 1, 4]"] ;
109 -> 110 ;
111 [label="entropy = 1.252\nsamples = 18\nvalue = [1, 0, 8, 0, 9]"] ;
109 -> 111 ;
112 [label="X[4] <= 5.5\nentropy = 2.092\nsamples = 1036\nvalue = [38, 150, 287, 344, 217]"] ;
96 -> 112 ;
113 [label="X[12] <= 4.5\nentropy = 2.093\nsamples = 620\nvalue = [26, 114, 218, 169, 93]"] ;
112 -> 113 ;
114 [label="X[1] <= 32.5\nentropy = 2.097\nsamples = 571\nvalue = [22, 111, 190, 161, 87]"] ;
113 -> 114 ;
115 [label="entropy = 2.132\nsamples = 448\nvalue = [21, 78, 138, 131, 80]"] ;
114 -> 115 ;
116 [label="entropy = 1.823\nsamples = 123\nvalue = [1, 33, 52, 30, 7]"] ;
114 -> 116 ;
117 [label="X[22] <= 0.5\nentropy = 1.801\nsamples = 49\nvalue = [4, 3, 28, 8, 6]"] ;
113 -> 117 ;
118 [label="entropy = 1.586\nsamples = 38\nvalue = [4, 0, 23, 6, 5]"] ;
117 -> 118 ;
119 [label="entropy = 1.79\nsamples = 11\nvalue = [0, 3, 5, 2, 1]"] ;
117 -> 119 ;
120 [label="X[18] <= 10.5\nentropy = 1.929\nsamples = 416\nvalue = [12, 36, 69, 175, 124]"] ;
112 -> 120 ;
121 [label="X[2] <= 12.5\nentropy = 2.068\nsamples = 77\nvalue = [8, 3, 21, 21, 24]"] ;
120 -> 121 ;
122 [label="entropy = 2.062\nsamples = 66\nvalue = [7, 3, 21, 13, 22]"] ;
121 -> 122 ;
123 [label="entropy = 1.096\nsamples = 11\nvalue = [1, 0, 0, 8, 2]"] ;
121 -> 123 ;
124 [label="X[2] <= 13.5\nentropy = 1.839\nsamples = 339\nvalue = [4, 33, 48, 154, 100]"] ;
120 -> 124 ;
125 [label="entropy = 1.825\nsamples = 286\nvalue = [2, 28, 47, 134, 75]"] ;
124 -> 125 ;
126 [label="entropy = 1.65\nsamples = 53\nvalue = [2, 5, 1, 20, 25]"] ;
124 -> 126 ;
}