digraph Tree {
node [shape=box] ;
0 [label="X[51] <= 0.5\ngini = 0.642\nsamples = 9073\nvalue = [2309, 4188, 2576]"] ;
1 [label="X[32] <= 0.5\ngini = 0.635\nsamples = 8473\nvalue = [2172, 4054, 2247]"] ;
0 -> 1 [labeldistance=2.5, labelangle=45, headlabel="True"] ;
2 [label="X[6] <= 0.5\ngini = 0.616\nsamples = 6854\nvalue = [1785, 3538, 1531]"] ;
1 -> 2 ;
3 [label="X[19] <= 0.5\ngini = 0.641\nsamples = 5384\nvalue = [1512, 2499, 1373]"] ;
2 -> 3 ;
4 [label="X[35] <= 3.5\ngini = 0.659\nsamples = 3622\nvalue = [1087, 1474, 1061]"] ;
3 -> 4 ;
5 [label="X[25] <= 0.5\ngini = 0.643\nsamples = 2153\nvalue = [690, 964, 499]"] ;
4 -> 5 ;
6 [label="gini = 0.652\nsamples = 1967\nvalue = [663, 818, 486]"] ;
5 -> 6 ;
7 [label="gini = 0.358\nsamples = 186\nvalue = [27, 146, 13]"] ;
5 -> 7 ;
8 [label="X[20] <= 0.5\ngini = 0.66\nsamples = 1469\nvalue = [397, 510, 562]"] ;
4 -> 8 ;
9 [label="gini = 0.658\nsamples = 1288\nvalue = [350, 422, 516]"] ;
8 -> 9 ;
10 [label="gini = 0.632\nsamples = 181\nvalue = [47, 88, 46]"] ;
8 -> 10 ;
11 [label="X[45] <= 0.5\ngini = 0.572\nsamples = 1762\nvalue = [425, 1025, 312]"] ;
3 -> 11 ;
12 [label="X[3] <= 1.5\ngini = 0.533\nsamples = 1324\nvalue = [306, 831, 187]"] ;
11 -> 12 ;
13 [label="gini = 0.456\nsamples = 587\nvalue = [98, 415, 74]"] ;
12 -> 13 ;
14 [label="gini = 0.578\nsamples = 737\nvalue = [208, 416, 113]"] ;
12 -> 14 ;
15 [label="X[0] <= 18.5\ngini = 0.649\nsamples = 438\nvalue = [119, 194, 125]"] ;
11 -> 15 ;
16 [label="gini = 0.641\nsamples = 405\nvalue = [101, 187, 117]"] ;
15 -> 16 ;
17 [label="gini = 0.599\nsamples = 33\nvalue = [18, 7, 8]"] ;
15 -> 17 ;
18 [label="X[45] <= 0.5\ngini = 0.454\nsamples = 1470\nvalue = [273, 1039, 158]"] ;
2 -> 18 ;
19 [label="X[6] <= 1.5\ngini = 0.409\nsamples = 1140\nvalue = [198, 849, 93]"] ;
18 -> 19 ;
20 [label="X[20] <= 0.5\ngini = 0.449\nsamples = 879\nvalue = [173, 624, 82]"] ;
19 -> 20 ;
21 [label="gini = 0.49\nsamples = 718\nvalue = [160, 481, 77]"] ;
20 -> 21 ;
22 [label="gini = 0.204\nsamples = 161\nvalue = [13, 143, 5]"] ;
20 -> 22 ;
23 [label="X[9] <= 4.5\ngini = 0.246\nsamples = 261\nvalue = [25, 225, 11]"] ;
19 -> 23 ;
24 [label="gini = 0.413\nsamples = 116\nvalue = [20, 86, 10]"] ;
23 -> 24 ;
25 [label="gini = 0.08\nsamples = 145\nvalue = [5, 139, 1]"] ;
23 -> 25 ;
26 [label="X[9] <= 3.5\ngini = 0.578\nsamples = 330\nvalue = [75, 190, 65]"] ;
18 -> 26 ;
27 [label="X[29] <= 1.5\ngini = 0.643\nsamples = 138\nvalue = [34, 63, 41]"] ;
26 -> 27 ;
28 [label="gini = 0.63\nsamples = 39\nvalue = [9, 11, 19]"] ;
27 -> 28 ;
29 [label="gini = 0.611\nsamples = 99\nvalue = [25, 52, 22]"] ;
27 -> 29 ;
30 [label="X[22] <= 1.5\ngini = 0.501\nsamples = 192\nvalue = [41, 127, 24]"] ;
26 -> 30 ;
31 [label="gini = 0.495\nsamples = 190\nvalue = [39, 127, 24]"] ;
30 -> 31 ;
32 [label="gini = 0.0\nsamples = 2\nvalue = [2, 0, 0]"] ;
30 -> 32 ;
33 [label="X[6] <= 0.5\ngini = 0.646\nsamples = 1619\nvalue = [387, 516, 716]"] ;
1 -> 33 ;
34 [label="X[20] <= 0.5\ngini = 0.632\nsamples = 1257\nvalue = [302, 347, 608]"] ;
33 -> 34 ;
35 [label="X[46] <= 0.5\ngini = 0.616\nsamples = 1070\nvalue = [258, 258, 554]"] ;
34 -> 35 ;
36 [label="X[45] <= 0.5\ngini = 0.633\nsamples = 952\nvalue = [247, 244, 461]"] ;
35 -> 36 ;
37 [label="gini = 0.655\nsamples = 685\nvalue = [197, 199, 289]"] ;
36 -> 37 ;
38 [label="gini = 0.522\nsamples = 267\nvalue = [50, 45, 172]"] ;
36 -> 38 ;
39 [label="X[25] <= 0.5\ngini = 0.356\nsamples = 118\nvalue = [11, 14, 93]"] ;
35 -> 39 ;
40 [label="gini = 0.287\nsamples = 104\nvalue = [8, 9, 87]"] ;
39 -> 40 ;
41 [label="gini = 0.643\nsamples = 14\nvalue = [3, 5, 6]"] ;
39 -> 41 ;
42 [label="X[46] <= 0.5\ngini = 0.635\nsamples = 187\nvalue = [44, 89, 54]"] ;
34 -> 42 ;
43 [label="X[32] <= 1.5\ngini = 0.612\nsamples = 160\nvalue = [38, 84, 38]"] ;
42 -> 43 ;
44 [label="gini = 0.579\nsamples = 128\nvalue = [33, 73, 22]"] ;
43 -> 44 ;
45 [label="gini = 0.607\nsamples = 32\nvalue = [5, 11, 16]"] ;
43 -> 45 ;
46 [label="X[4] <= 0.5\ngini = 0.565\nsamples = 27\nvalue = [6, 5, 16]"] ;
42 -> 46 ;
47 [label="gini = 0.475\nsamples = 22\nvalue = [5, 2, 15]"] ;
46 -> 47 ;
48 [label="gini = 0.56\nsamples = 5\nvalue = [1, 3, 1]"] ;
46 -> 48 ;
49 [label="X[32] <= 1.5\ngini = 0.638\nsamples = 362\nvalue = [85, 169, 108]"] ;
33 -> 49 ;
50 [label="X[15] <= 1.5\ngini = 0.625\nsamples = 298\nvalue = [73, 149, 76]"] ;
49 -> 50 ;
51 [label="X[3] <= 3.5\ngini = 0.656\nsamples = 183\nvalue = [52, 76, 55]"] ;
50 -> 51 ;
52 [label="gini = 0.64\nsamples = 154\nvalue = [41, 72, 41]"] ;
51 -> 52 ;
53 [label="gini = 0.604\nsamples = 29\nvalue = [11, 4, 14]"] ;
51 -> 53 ;
54 [label="X[21] <= 10.5\ngini = 0.53\nsamples = 115\nvalue = [21, 73, 21]"] ;
50 -> 54 ;
55 [label="gini = 0.503\nsamples = 107\nvalue = [19, 71, 17]"] ;
54 -> 55 ;
56 [label="gini = 0.625\nsamples = 8\nvalue = [2, 2, 4]"] ;
54 -> 56 ;
57 [label="X[21] <= 7.5\ngini = 0.617\nsamples = 64\nvalue = [12, 20, 32]"] ;
49 -> 57 ;
58 [label="X[42] <= 0.5\ngini = 0.536\nsamples = 47\nvalue = [4, 15, 28]"] ;
57 -> 58 ;
59 [label="gini = 0.461\nsamples = 36\nvalue = [3, 8, 25]"] ;
58 -> 59 ;
60 [label="gini = 0.512\nsamples = 11\nvalue = [1, 7, 3]"] ;
58 -> 60 ;
61 [label="X[28] <= 3.5\ngini = 0.637\nsamples = 17\nvalue = [8, 5, 4]"] ;
57 -> 61 ;
62 [label="gini = 0.5\nsamples = 12\nvalue = [8, 2, 2]"] ;
61 -> 62 ;
63 [label="gini = 0.48\nsamples = 5\nvalue = [0, 3, 2]"] ;
61 -> 63 ;
64 [label="X[5] <= 0.5\ngini = 0.597\nsamples = 600\nvalue = [137, 134, 329]"] ;
0 -> 64 [labeldistance=2.5, labelangle=-45, headlabel="False"] ;
65 [label="X[32] <= 0.5\ngini = 0.578\nsamples = 502\nvalue = [115, 98, 289]"] ;
64 -> 65 ;
66 [label="X[41] <= 0.5\ngini = 0.622\nsamples = 379\nvalue = [101, 87, 191]"] ;
65 -> 66 ;
67 [label="X[3] <= 1.5\ngini = 0.664\nsamples = 168\nvalue = [53, 52, 63]"] ;
66 -> 67 ;
68 [label="X[29] <= 2.5\ngini = 0.619\nsamples = 56\nvalue = [11, 28, 17]"] ;
67 -> 68 ;
69 [label="gini = 0.646\nsamples = 41\nvalue = [9, 15, 17]"] ;
68 -> 69 ;
70 [label="gini = 0.231\nsamples = 15\nvalue = [2, 13, 0]"] ;
68 -> 70 ;
71 [label="X[13] <= 0.5\ngini = 0.645\nsamples = 112\nvalue = [42, 24, 46]"] ;
67 -> 71 ;
72 [label="gini = 0.619\nsamples = 96\nvalue = [42, 15, 39]"] ;
71 -> 72 ;
73 [label="gini = 0.492\nsamples = 16\nvalue = [0, 9, 7]"] ;
71 -> 73 ;
74 [label="X[25] <= 0.5\ngini = 0.553\nsamples = 211\nvalue = [48, 35, 128]"] ;
66 -> 74 ;
75 [label="X[9] <= 9.5\ngini = 0.514\nsamples = 190\nvalue = [43, 24, 123]"] ;
74 -> 75 ;
76 [label="gini = 0.501\nsamples = 185\nvalue = [42, 21, 122]"] ;
75 -> 76 ;
77 [label="gini = 0.56\nsamples = 5\nvalue = [1, 3, 1]"] ;
75 -> 77 ;
78 [label="X[47] <= 5.5\ngini = 0.612\nsamples = 21\nvalue = [5, 11, 5]"] ;
74 -> 78 ;
79 [label="gini = 0.498\nsamples = 15\nvalue = [2, 10, 3]"] ;
78 -> 79 ;
80 [label="gini = 0.611\nsamples = 6\nvalue = [3, 1, 2]"] ;
78 -> 80 ;
81 [label="X[6] <= 1.5\ngini = 0.344\nsamples = 123\nvalue = [14, 11, 98]"] ;
65 -> 81 ;
82 [label="X[35] <= 3.5\ngini = 0.326\nsamples = 121\nvalue = [13, 10, 98]"] ;
81 -> 82 ;
83 [label="X[0] <= 23.0\ngini = 0.448\nsamples = 63\nvalue = [10, 8, 45]"] ;
82 -> 83 ;
84 [label="gini = 0.434\nsamples = 62\nvalue = [10, 7, 45]"] ;
83 -> 84 ;
85 [label="gini = 0.0\nsamples = 1\nvalue = [0, 1, 0]"] ;
83 -> 85 ;
86 [label="X[27] <= 8.5\ngini = 0.161\nsamples = 58\nvalue = [3, 2, 53]"] ;
82 -> 86 ;
87 [label="gini = 0.103\nsamples = 56\nvalue = [1, 2, 53]"] ;
86 -> 87 ;
88 [label="gini = 0.0\nsamples = 2\nvalue = [2, 0, 0]"] ;
86 -> 88 ;
89 [label="X[27] <= 2.0\ngini = 0.5\nsamples = 2\nvalue = [1, 1, 0]"] ;
81 -> 89 ;
90 [label="gini = 0.0\nsamples = 1\nvalue = [1, 0, 0]"] ;
89 -> 90 ;
91 [label="gini = 0.0\nsamples = 1\nvalue = [0, 1, 0]"] ;
89 -> 91 ;
92 [label="X[20] <= 0.5\ngini = 0.648\nsamples = 98\nvalue = [22, 36, 40]"] ;
64 -> 92 ;
93 [label="X[47] <= 10.0\ngini = 0.368\nsamples = 22\nvalue = [4, 1, 17]"] ;
92 -> 93 ;
94 [label="X[15] <= 2.5\ngini = 0.265\nsamples = 20\nvalue = [2, 1, 17]"] ;
93 -> 94 ;
95 [label="X[41] <= 0.5\ngini = 0.194\nsamples = 19\nvalue = [1, 1, 17]"] ;
94 -> 95 ;
96 [label="gini = 0.625\nsamples = 4\nvalue = [1, 1, 2]"] ;
95 -> 96 ;
97 [label="gini = 0.0\nsamples = 15\nvalue = [0, 0, 15]"] ;
95 -> 97 ;
98 [label="gini = 0.0\nsamples = 1\nvalue = [1, 0, 0]"] ;
94 -> 98 ;
99 [label="gini = 0.0\nsamples = 2\nvalue = [2, 0, 0]"] ;
93 -> 99 ;
100 [label="X[9] <= 5.5\ngini = 0.64\nsamples = 76\nvalue = [18, 35, 23]"] ;
92 -> 100 ;
101 [label="X[26] <= 6.5\ngini = 0.664\nsamples = 43\nvalue = [13, 14, 16]"] ;
100 -> 101 ;
102 [label="gini = 0.0\nsamples = 4\nvalue = [0, 4, 0]"] ;
101 -> 102 ;
103 [label="X[35] <= 3.5\ngini = 0.655\nsamples = 39\nvalue = [13, 10, 16]"] ;
101 -> 103 ;
104 [label="gini = 0.586\nsamples = 18\nvalue = [10, 5, 3]"] ;
103 -> 104 ;
105 [label="gini = 0.54\nsamples = 21\nvalue = [3, 5, 13]"] ;
103 -> 105 ;
106 [label="X[21] <= 9.5\ngini = 0.527\nsamples = 33\nvalue = [5, 21, 7]"] ;
100 -> 106 ;
107 [label="X[43] <= 2.5\ngini = 0.46\nsamples = 30\nvalue = [3, 21, 6]"] ;
106 -> 107 ;
108 [label="gini = 0.401\nsamples = 27\nvalue = [1, 20, 6]"] ;
107 -> 108 ;
109 [label="gini = 0.444\nsamples = 3\nvalue = [2, 1, 0]"] ;
107 -> 109 ;
110 [label="X[21] <= 11.5\ngini = 0.444\nsamples = 3\nvalue = [2, 0, 1]"] ;
106 -> 110 ;
111 [label="gini = 0.0\nsamples = 2\nvalue = [2, 0, 0]"] ;
110 -> 111 ;
112 [label="gini = 0.0\nsamples = 1\nvalue = [0, 0, 1]"] ;
110 -> 112 ;
}